digraph Tree {
node [shape=box, fontname="helvetica"] ;
edge [fontname="helvetica"] ;
0 [label="X[1] <= 7.5\nmse = 2.307\nsamples = 20\nvalue = 7.325"] ;
1 [label="X[0] <= 8.5\nmse = 2.102\nsamples = 17\nvalue = 7.029"] ;
0 -> 1 [labeldistance=2.5, labelangle=45, headlabel="True"] ;
2 [label="X[1] <= 5.5\nmse = 1.49\nsamples = 7\nvalue = 7.786"] ;
1 -> 2 ;
3 [label="X[2] <= 7.5\nmse = 0.167\nsamples = 3\nvalue = 6.5"] ;
2 -> 3 ;
4 [label="X[1] <= 4.5\nmse = 0.062\nsamples = 2\nvalue = 6.25"] ;
3 -> 4 ;
5 [label="mse = 0.0\nsamples = 1\nvalue = 6.5"] ;
4 -> 5 ;
6 [label="mse = 0.0\nsamples = 1\nvalue = 6.0"] ;
4 -> 6 ;
7 [label="mse = 0.0\nsamples = 1\nvalue = 7.0"] ;
3 -> 7 ;
8 [label="X[1] <= 6.5\nmse = 0.312\nsamples = 4\nvalue = 8.75"] ;
2 -> 8 ;
9 [label="X[2] <= 7.5\nmse = 0.062\nsamples = 2\nvalue = 8.25"] ;
8 -> 9 ;
10 [label="mse = 0.0\nsamples = 1\nvalue = 8.0"] ;
9 -> 10 ;
11 [label="mse = 0.0\nsamples = 1\nvalue = 8.5"] ;
9 -> 11 ;
12 [label="X[2] <= 5.5\nmse = 0.062\nsamples = 2\nvalue = 9.25"] ;
8 -> 12 ;
13 [label="mse = 0.0\nsamples = 1\nvalue = 9.0"] ;
12 -> 13 ;
14 [label="mse = 0.0\nsamples = 1\nvalue = 9.5"] ;
12 -> 14 ;
15 [label="X[2] <= 4.0\nmse = 1.85\nsamples = 10\nvalue = 6.5"] ;
1 -> 15 ;
16 [label="X[1] <= 6.5\nmse = 0.167\nsamples = 3\nvalue = 5.0"] ;
15 -> 16 ;
17 [label="X[3] <= 9.0\nmse = 0.062\nsamples = 2\nvalue = 5.25"] ;
16 -> 17 ;
18 [label="mse = 0.0\nsamples = 1\nvalue = 5.0"] ;
17 -> 18 ;
19 [label="mse = 0.0\nsamples = 1\nvalue = 5.5"] ;
17 -> 19 ;
20 [label="mse = 0.0\nsamples = 1\nvalue = 4.5"] ;
16 -> 20 ;
21 [label="X[2] <= 9.5\nmse = 1.194\nsamples = 7\nvalue = 7.143"] ;
15 -> 21 ;
22 [label="X[2] <= 5.5\nmse = 0.5\nsamples = 6\nvalue = 7.5"] ;
21 -> 22 ;
23 [label="mse = 0.0\nsamples = 1\nvalue = 9.0"] ;
22 -> 23 ;
24 [label="mse = 0.06\nsamples = 5\nvalue = 7.2"] ;
22 -> 24 ;
25 [label="mse = 0.0\nsamples = 1\nvalue = 5.0"] ;
21 -> 25 ;
26 [label="X[0] <= 7.0\nmse = 0.167\nsamples = 3\nvalue = 9.0"] ;
0 -> 26 [labeldistance=2.5, labelangle=-45, headlabel="False"] ;
27 [label="mse = 0.0\nsamples = 1\nvalue = 8.5"] ;
26 -> 27 ;
28 [label="X[0] <= 9.5\nmse = 0.062\nsamples = 2\nvalue = 9.25"] ;
26 -> 28 ;
29 [label="mse = 0.0\nsamples = 1\nvalue = 9.5"] ;
28 -> 29 ;
30 [label="mse = 0.0\nsamples = 1\nvalue = 9.0"] ;
28 -> 30 ;
}